digraph Tree {
0 [label="X[3] <= 0.5000\ngini = 0.165289256198\nsamples = 33", shape="box"] ;
1 [label="gini = 0.0000\nsamples = 25\nvalue = [ 25.   0.]", shape="box"] ;
0 -> 1 ;
2 [label="X[2] <= 1.5000\ngini = 0.46875\nsamples = 8", shape="box"] ;
0 -> 2 ;
3 [label="X[6] <= 2.0000\ngini = 0.277777777778\nsamples = 6", shape="box"] ;
2 -> 3 ;
4 [label="gini = 0.0000\nsamples = 5\nvalue = [ 5.  0.]", shape="box"] ;
3 -> 4 ;
5 [label="gini = 0.0000\nsamples = 1\nvalue = [ 0.  1.]", shape="box"] ;
3 -> 5 ;
6 [label="gini = 0.0000\nsamples = 2\nvalue = [ 0.  2.]", shape="box"] ;
2 -> 6 ;
}