digraph Tree {
0 [label="X[3] <= 0.5000\ngini = 0.113865932048\nsamples = 33", shape="box"] ;
1 [label="gini = 0.0000\nsamples = 25\nvalue = [ 25.   0.]", shape="box"] ;
0 -> 1 ;
2 [label="X[2] <= 1.5000\ngini = 0.375\nsamples = 8", shape="box"] ;
0 -> 2 ;
3 [label="gini = 0.0000\nsamples = 6\nvalue = [ 6.  0.]", shape="box"] ;
2 -> 3 ;
4 [label="gini = 0.0000\nsamples = 2\nvalue = [ 0.  2.]", shape="box"] ;
2 -> 4 ;
}