digraph Tree {
0 [label="X[3] <= 1.5000\ngini = 0.058769513315\nsamples = 33", shape="box"] ;
1 [label="gini = 0.0000\nsamples = 26\nvalue = [ 26.   0.]", shape="box"] ;
0 -> 1 ;
2 [label="X[1] <= 1.0000\ngini = 0.244897959184\nsamples = 7", shape="box"] ;
0 -> 2 ;
3 [label="X[4] <= 1.5000\ngini = 0.5\nsamples = 2", shape="box"] ;
2 -> 3 ;
4 [label="gini = 0.0000\nsamples = 1\nvalue = [ 0.  1.]", shape="box"] ;
3 -> 4 ;
5 [label="gini = 0.0000\nsamples = 1\nvalue = [ 1.  0.]", shape="box"] ;
3 -> 5 ;
6 [label="gini = 0.0000\nsamples = 5\nvalue = [ 5.  0.]", shape="box"] ;
2 -> 6 ;
}