digraph Tree {
0 [label="X[8] <= 0.5000\ngini = 0.488521579431\nsamples = 33", shape="box"] ;
1 [label="X[5] <= 2.0000\ngini = 0.104938271605\nsamples = 18", shape="box"] ;
0 -> 1 ;
2 [label="gini = 0.0000\nsamples = 16\nvalue = [ 16.   0.]", shape="box"] ;
1 -> 2 ;
3 [label="X[6] <= 1.5000\ngini = 0.5\nsamples = 2", shape="box"] ;
1 -> 3 ;
4 [label="gini = 0.0000\nsamples = 1\nvalue = [ 0.  1.]", shape="box"] ;
3 -> 4 ;
5 [label="gini = 0.0000\nsamples = 1\nvalue = [ 1.  0.]", shape="box"] ;
3 -> 5 ;
6 [label="X[6] <= 2.0000\ngini = 0.231111111111\nsamples = 15", shape="box"] ;
0 -> 6 ;
7 [label="gini = 0.0000\nsamples = 11\nvalue = [  0.  11.]", shape="box"] ;
6 -> 7 ;
8 [label="X[0] <= 2.5000\ngini = 0.5\nsamples = 4", shape="box"] ;
6 -> 8 ;
9 [label="gini = 0.0000\nsamples = 2\nvalue = [ 0.  2.]", shape="box"] ;
8 -> 9 ;
10 [label="gini = 0.0000\nsamples = 2\nvalue = [ 2.  0.]", shape="box"] ;
8 -> 10 ;
}